2.766022176981580927e+00
-1.724019450680666088e-01
5.389719816311391298e-01
-5.787348900755199033e+00
4.468123082747337271e+00
2.248314955027168160e+00
1.037764070549785922e+00
4.121045219784726044e+00
-1.461838427043225530e-01
-1.830164591975909527e+00
3.811923237104918316e-01
3.609466540875399865e+00
-7.980588175938205797e-01
-3.086035726520912625e-01
-1.863281734481911700e+00
-8.107866089616940997e+00
2.941092777459007213e+00
3.193268492741768050e+00
1.716251923395570422e+00
-2.106867717481865743e+00
1.002122357264529695e+00
-1.080637789598202225e-01
-9.221630298182190710e-01
-2.812811094436697523e+00
-2.373874802472098811e+00
2.094861206653328090e+00
1.944860138489529877e+00
2.896382707796957945e+00
2.845470995219213428e+00
7.006755067408521054e-01
3.071599365222892342e+00
-7.283876230037836241e-02
8.564567607491986312e-01
-4.814424709385488832e+00
-2.005014914192812192e+00
1.069891338250953838e+00
2.359817339659593838e+00
6.587014219617624011e-01
-7.323516332215078695e-01
-2.979328939301854717e+00
8.357688614128453430e-01
7.111606805221133421e-01
-4.715612479328751272e-01
-4.967169834700339237e+00
-3.083921830353770765e+00
-2.267476003272430596e+00
2.040089321404310319e-01
-3.099532496576562046e+00
-1.838022286522615678e+00
1.564084819153972239e+00
-3.551826701883165072e-01
5.692514906190914159e-01
-3.532243380710944791e+00
8.832407094883166776e-01
1.129237427807443739e+00
