8.522332830386334379e-01
-1.989691915315722426e+00
-4.508364514135200452e+00
-1.229445324721459704e-01
4.201377541143091143e+00
-3.235771065019090731e+00
-7.240680754152462484e+00
1.626664645697213363e+00
1.629862148980844028e+00
2.863395836559427643e+00
-1.086516669748182728e+00
3.361880349756064756e+00
-3.065342752501828416e-01
6.131609530322923440e+00
-1.198396285311287723e+00
-5.412820839869381118e+00
8.612938399870787576e-01
4.817620828194834282e+00
-4.805056860201649904e+00
-2.398880449798032277e+00
-3.922543137211264241e+00
-1.433602479227712445e+00
2.041704418886358230e+00
6.591200788509604891e+00
-3.704658241526275653e+00
6.099782623543950955e+00
-1.825556085654807426e+00
1.845265104675987367e+00
4.154193707813215397e+00
-2.261763897746698948e+00
1.165154333704592204e+00
-8.940760506692635445e+00
3.848586018855796542e+00
-5.707567556271110343e-01
-3.666988399716790248e+00
6.366213662077780944e-01
-5.930983834879292260e+00
-2.463157605828010688e+00
2.839403666605556431e+00
2.845640818282828111e+00
-1.847623381272993193e+00
-6.038928642261018886e+00
3.132809571033777774e-01
8.499443510648890809e-01
-1.707287637343975484e-01
7.128971789876999310e+00
4.061517814294127171e-01
4.075452463285685667e+00
-7.802057743205055296e+00
-9.967614288232182762e-01
8.742654564520038196e-01
-3.936242548898201132e+00
-3.558686486886415423e+00
-4.457868982414367132e+00
-9.489020495611207195e+00
