1.122860654282363146e+00
-2.562397845703060728e+00
-3.666369624375420688e+00
2.793902512575577646e+00
4.140938004875490464e+00
5.060923522509297445e-01
-8.234297535915253263e+00
-3.404436303755582927e+00
3.181905856452568182e-01
3.829122445127975727e+00
2.215554145249753581e+00
2.068594131450084195e+00
2.260230223597119892e+00
9.807480942268231416e+00
1.280699353085251291e+00
-6.362295161554211376e+00
3.121403519244689395e+00
3.193691461374976281e+00
-7.876758181843598550e+00
-1.065971460382003411e+00
-7.190350236722911959e+00
-1.011687962636305116e+00
2.003498525486270498e+00
4.335733249015470747e+00
-3.563736835309193829e+00
1.065104933876500048e+01
-3.420842592608142940e+00
1.648191575469082348e+00
6.838383427205677600e-01
-5.983643102385001633e+00
-1.246477427006675576e-01
-7.215198744724451885e+00
4.292883237250116224e+00
-6.673457291763321919e+00
1.064077247321954411e+00
3.165447919611708016e-01
-1.244885315354871835e+01
3.310879221761100055e+00
1.663597559234787138e+00
3.902208794013150239e+00
2.743690909723762950e+00
-4.533519449508833787e+00
2.513081194647490246e+00
1.044159315434444180e-01
3.807384913076603983e+00
1.371169349704312523e+01
9.688957099212021085e-01
2.155628436739459808e+00
-8.285173144486179808e+00
-3.074853058902947467e+00
-2.110039925395291061e+00
-3.846250927420456378e+00
-4.988980561545911740e+00
-9.876597689977348438e+00
-7.272043883359448735e+00
